digraph Tree {
node [shape=box, style="rounded", color="black", fontname=helvetica] ;
edge [fontname=helvetica] ;
0 [label="bmibasal <= 0.4\nmse = 22547.6\nsamples = 135\nvalue = 162.6"] ;
1 [label="creatinina <= 0.3\nmse = 8235.9\nsamples = 44\nvalue = 74.7"] ;
0 -> 1 [labeldistance=2.5, labelangle=45, headlabel="True"] ;
2 [label="etiologiaprincipal <= 0.1\nmse = 5458.9\nsamples = 43\nvalue = 63.1"] ;
1 -> 2 ;
3 [label="edaddon <= 0.5\nmse = 7964.7\nsamples = 10\nvalue = 140.9"] ;
2 -> 3 ;
4 [label="tiempoisquemiafria <= 0.2\nmse = 4476.8\nsamples = 4\nvalue = 238.5"] ;
3 -> 4 ;
5 [label="mse = 0.0\nsamples = 1\nvalue = 351.0"] ;
4 -> 5 ;
6 [label="ast <= 0.0\nmse = 344.0\nsamples = 3\nvalue = 201.0"] ;
4 -> 6 ;
7 [label="bmibasal <= 0.2\nmse = 9.0\nsamples = 2\nvalue = 188.0"] ;
6 -> 7 ;
8 [label="mse = 0.0\nsamples = 1\nvalue = 185.0"] ;
7 -> 8 ;
9 [label="mse = 0.0\nsamples = 1\nvalue = 191.0"] ;
7 -> 9 ;
10 [label="mse = 0.0\nsamples = 1\nvalue = 227.0"] ;
6 -> 10 ;
11 [label="meldinclusion <= 0.3\nmse = 3402.5\nsamples = 6\nvalue = 97.6"] ;
3 -> 11 ;
12 [label="age <= 0.8\nmse = 1282.8\nsamples = 3\nvalue = 142.0"] ;
11 -> 12 ;
13 [label="alt <= 0.0\nmse = 533.6\nsamples = 2\nvalue = 167.3"] ;
12 -> 13 ;
14 [label="mse = 0.0\nsamples = 1\nvalue = 200.0"] ;
13 -> 14 ;
15 [label="mse = 0.0\nsamples = 1\nvalue = 151.0"] ;
13 -> 15 ;
16 [label="mse = 0.0\nsamples = 1\nvalue = 104.0"] ;
12 -> 16 ;
17 [label="age <= 0.5\nmse = 496.5\nsamples = 3\nvalue = 42.0"] ;
11 -> 17 ;
18 [label="mse = 0.0\nsamples = 1\nvalue = 64.0"] ;
17 -> 18 ;
19 [label="alt <= 0.0\nmse = 25.0\nsamples = 2\nvalue = 20.0"] ;
17 -> 19 ;
20 [label="mse = 0.0\nsamples = 1\nvalue = 15.0"] ;
19 -> 20 ;
21 [label="mse = 0.0\nsamples = 1\nvalue = 25.0"] ;
19 -> 21 ;
22 [label="bmiestdon <= 0.4\nmse = 3045.4\nsamples = 33\nvalue = 44.3"] ;
2 -> 22 ;
23 [label="bmiestdon <= 0.4\nmse = 4729.0\nsamples = 15\nvalue = 70.3"] ;
22 -> 23 ;
24 [label="alt <= 0.0\nmse = 2846.4\nsamples = 12\nvalue = 53.8"] ;
23 -> 24 ;
25 [label="gender <= 0.5\nmse = 372.6\nsamples = 5\nvalue = 21.4"] ;
24 -> 25 ;
26 [label="bmibasal <= 0.3\nmse = 3.8\nsamples = 3\nvalue = 2.6"] ;
25 -> 26 ;
27 [label="mse = 0.0\nsamples = 2\nvalue = 1.0"] ;
26 -> 27 ;
28 [label="mse = 0.0\nsamples = 1\nvalue = 5.0"] ;
26 -> 28 ;
29 [label="compatibilidadabo <= 0.5\nmse = 34.6\nsamples = 2\nvalue = 40.2"] ;
25 -> 29 ;
30 [label="mse = 0.0\nsamples = 1\nvalue = 45.0"] ;
29 -> 30 ;
31 [label="mse = 0.0\nsamples = 1\nvalue = 33.0"] ;
29 -> 31 ;
32 [label="sfiptx <= 0.2\nmse = 3220.6\nsamples = 7\nvalue = 86.2"] ;
24 -> 32 ;
33 [label="hipotension <= 0.5\nmse = 1766.0\nsamples = 4\nvalue = 123.0"] ;
32 -> 33 ;
34 [label="ast <= 0.0\nmse = 212.2\nsamples = 3\nvalue = 151.5"] ;
33 -> 34 ;
35 [label="edaddon <= 0.5\nmse = 4.0\nsamples = 2\nvalue = 166.0"] ;
34 -> 35 ;
36 [label="mse = 0.0\nsamples = 1\nvalue = 168.0"] ;
35 -> 36 ;
37 [label="mse = 0.0\nsamples = 1\nvalue = 164.0"] ;
35 -> 37 ;
38 [label="mse = 0.0\nsamples = 1\nvalue = 137.0"] ;
34 -> 38 ;
39 [label="mse = 0.0\nsamples = 1\nvalue = 66.0"] ;
33 -> 39 ;
40 [label="tiempolistaespera <= 0.3\nmse = 324.0\nsamples = 3\nvalue = 31.0"] ;
32 -> 40 ;
41 [label="na <= 0.4\nmse = 32.0\nsamples = 2\nvalue = 41.0"] ;
40 -> 41 ;
42 [label="mse = 0.0\nsamples = 1\nvalue = 45.0"] ;
41 -> 42 ;
43 [label="mse = 0.0\nsamples = 1\nvalue = 33.0"] ;
41 -> 43 ;
44 [label="mse = 0.0\nsamples = 1\nvalue = 1.0"] ;
40 -> 44 ;
45 [label="alt <= 0.0\nmse = 3284.2\nsamples = 3\nvalue = 180.7"] ;
23 -> 45 ;
46 [label="meldtx <= 0.6\nmse = 441.0\nsamples = 2\nvalue = 142.0"] ;
45 -> 46 ;
47 [label="mse = 0.0\nsamples = 1\nvalue = 121.0"] ;
46 -> 47 ;
48 [label="mse = 0.0\nsamples = 1\nvalue = 163.0"] ;
46 -> 48 ;
49 [label="mse = 0.0\nsamples = 1\nvalue = 258.0"] ;
45 -> 49 ;
50 [label="creatinina <= 0.1\nmse = 921.7\nsamples = 18\nvalue = 25.0"] ;
22 -> 50 ;
51 [label="na <= 0.2\nmse = 340.0\nsamples = 14\nvalue = 16.6"] ;
50 -> 51 ;
52 [label="mse = 0.0\nsamples = 1\nvalue = 67.0"] ;
51 -> 52 ;
53 [label="tiempolistaespera <= 0.0\nmse = 129.1\nsamples = 13\nvalue = 12.2"] ;
51 -> 53 ;
54 [label="bmiestdon <= 0.5\nmse = 33.0\nsamples = 3\nvalue = 32.0"] ;
53 -> 54 ;
55 [label="edaddon <= 0.8\nmse = 8.0\nsamples = 2\nvalue = 29.0"] ;
54 -> 55 ;
56 [label="mse = 0.0\nsamples = 1\nvalue = 27.0"] ;
55 -> 56 ;
57 [label="mse = 0.0\nsamples = 1\nvalue = 33.0"] ;
55 -> 57 ;
58 [label="mse = 0.0\nsamples = 1\nvalue = 41.0"] ;
54 -> 58 ;
59 [label="na <= 0.3\nmse = 49.2\nsamples = 10\nvalue = 8.0"] ;
53 -> 59 ;
60 [label="creatinina <= 0.1\nmse = 10.7\nsamples = 3\nvalue = 20.2"] ;
59 -> 60 ;
61 [label="multiorganico <= 0.5\nmse = 2.0\nsamples = 2\nvalue = 22.0"] ;
60 -> 61 ;
62 [label="mse = 0.0\nsamples = 1\nvalue = 23.0"] ;
61 -> 62 ;
63 [label="mse = 0.0\nsamples = 1\nvalue = 20.0"] ;
61 -> 63 ;
64 [label="mse = 0.0\nsamples = 1\nvalue = 15.0"] ;
60 -> 64 ;
65 [label="meldinclusion <= 0.1\nmse = 8.7\nsamples = 7\nvalue = 4.7"] ;
59 -> 65 ;
66 [label="mse = 0.0\nsamples = 1\nvalue = 9.0"] ;
65 -> 66 ;
67 [label="bit <= 0.1\nmse = 2.9\nsamples = 6\nvalue = 3.2"] ;
65 -> 67 ;
68 [label="mse = 0.0\nsamples = 3\nvalue = 1.0"] ;
67 -> 68 ;
69 [label="apcirugiaabdosuperior <= 0.5\nmse = 0.2\nsamples = 3\nvalue = 4.4"] ;
67 -> 69 ;
70 [label="mse = 0.0\nsamples = 2\nvalue = 4.0"] ;
69 -> 70 ;
71 [label="mse = 0.0\nsamples = 1\nvalue = 5.0"] ;
69 -> 71 ;
72 [label="creatinina <= 0.2\nmse = 1800.2\nsamples = 4\nvalue = 60.3"] ;
50 -> 72 ;
73 [label="mse = 0.0\nsamples = 1\nvalue = 144.0"] ;
72 -> 73 ;
74 [label="tiempolistaespera <= 0.1\nmse = 480.2\nsamples = 3\nvalue = 43.6"] ;
72 -> 74 ;
75 [label="sfiptx <= 0.2\nmse = 110.2\nsamples = 2\nvalue = 53.5"] ;
74 -> 75 ;
76 [label="mse = 0.0\nsamples = 1\nvalue = 64.0"] ;
75 -> 76 ;
77 [label="mse = 0.0\nsamples = 1\nvalue = 43.0"] ;
75 -> 77 ;
78 [label="mse = 0.0\nsamples = 1\nvalue = 4.0"] ;
74 -> 78 ;
79 [label="mse = 0.0\nsamples = 1\nvalue = 334.0"] ;
1 -> 79 ;
80 [label="tiempolistaespera <= 0.2\nmse = 23939.1\nsamples = 91\nvalue = 203.8"] ;
0 -> 80 [labeldistance=2.5, labelangle=-45, headlabel="False"] ;
81 [label="ast <= 0.1\nmse = 22568.6\nsamples = 68\nvalue = 164.9"] ;
80 -> 81 ;
82 [label="meldtx <= 0.3\nmse = 19366.0\nsamples = 54\nvalue = 134.5"] ;
81 -> 82 ;
83 [label="tiempolistaespera <= 0.1\nmse = 20911.3\nsamples = 20\nvalue = 216.3"] ;
82 -> 83 ;
84 [label="na <= 0.4\nmse = 14257.3\nsamples = 16\nvalue = 261.0"] ;
83 -> 84 ;
85 [label="na <= 0.3\nmse = 3308.8\nsamples = 8\nvalue = 326.1"] ;
84 -> 85 ;
86 [label="sexodon <= 0.5\nmse = 3005.8\nsamples = 4\nvalue = 274.2"] ;
85 -> 86 ;
87 [label="gender <= 0.5\nmse = 256.9\nsamples = 2\nvalue = 224.7"] ;
86 -> 87 ;
88 [label="mse = 0.0\nsamples = 1\nvalue = 236.0"] ;
87 -> 88 ;
89 [label="mse = 0.0\nsamples = 1\nvalue = 202.0"] ;
87 -> 89 ;
90 [label="htabasal <= 0.5\nmse = 854.2\nsamples = 2\nvalue = 323.7"] ;
86 -> 90 ;
91 [label="mse = 0.0\nsamples = 1\nvalue = 365.0"] ;
90 -> 91 ;
92 [label="mse = 0.0\nsamples = 1\nvalue = 303.0"] ;
90 -> 92 ;
93 [label="mse = 0.0\nsamples = 4\nvalue = 365.0"] ;
85 -> 93 ;
94 [label="na <= 0.6\nmse = 14455.7\nsamples = 8\nvalue = 159.8"] ;
84 -> 94 ;
95 [label="bmibasal <= 0.5\nmse = 8011.2\nsamples = 6\nvalue = 92.5"] ;
94 -> 95 ;
96 [label="mse = 0.0\nsamples = 1\nvalue = 273.0"] ;
95 -> 96 ;
97 [label="age <= 0.8\nmse = 1794.2\nsamples = 5\nvalue = 56.4"] ;
95 -> 97 ;
98 [label="bit <= 0.1\nmse = 44.2\nsamples = 3\nvalue = 90.7"] ;
97 -> 98 ;
99 [label="mse = 0.0\nsamples = 1\nvalue = 100.0"] ;
98 -> 99 ;
100 [label="etiologiaprincipal <= 0.5\nmse = 1.0\nsamples = 2\nvalue = 86.0"] ;
98 -> 100 ;
101 [label="mse = 0.0\nsamples = 1\nvalue = 87.0"] ;
100 -> 101 ;
102 [label="mse = 0.0\nsamples = 1\nvalue = 85.0"] ;
100 -> 102 ;
103 [label="cmvbasal <= 0.5\nmse = 16.0\nsamples = 2\nvalue = 5.0"] ;
97 -> 103 ;
104 [label="mse = 0.0\nsamples = 1\nvalue = 9.0"] ;
103 -> 104 ;
105 [label="mse = 0.0\nsamples = 1\nvalue = 1.0"] ;
103 -> 105 ;
106 [label="diasuci <= 0.1\nmse = 186.9\nsamples = 2\nvalue = 294.3"] ;
94 -> 106 ;
107 [label="mse = 0.0\nsamples = 1\nvalue = 304.0"] ;
106 -> 107 ;
108 [label="mse = 0.0\nsamples = 1\nvalue = 275.0"] ;
106 -> 108 ;
109 [label="compatibilidadabo <= 0.5\nmse = 16.2\nsamples = 4\nvalue = 10.6"] ;
83 -> 109 ;
110 [label="mse = 0.0\nsamples = 1\nvalue = 3.0"] ;
109 -> 110 ;
111 [label="tiempolistaespera <= 0.2\nmse = 2.2\nsamples = 3\nvalue = 12.5"] ;
109 -> 111 ;
112 [label="mse = 0.0\nsamples = 1\nvalue = 10.0"] ;
111 -> 112 ;
113 [label="bmiestdon <= 0.4\nmse = 0.2\nsamples = 2\nvalue = 13.3"] ;
111 -> 113 ;
114 [label="mse = 0.0\nsamples = 1\nvalue = 14.0"] ;
113 -> 114 ;
115 [label="mse = 0.0\nsamples = 1\nvalue = 13.0"] ;
113 -> 115 ;
116 [label="etiologiaprincipal <= 0.3\nmse = 13573.7\nsamples = 34\nvalue = 93.6"] ;
82 -> 116 ;
117 [label="na <= 0.2\nmse = 1284.7\nsamples = 10\nvalue = 21.1"] ;
116 -> 117 ;
118 [label="mse = 0.0\nsamples = 1\nvalue = 123.0"] ;
117 -> 118 ;
119 [label="htabasal <= 0.5\nmse = 69.2\nsamples = 9\nvalue = 9.1"] ;
117 -> 119 ;
120 [label="creatinina <= 0.2\nmse = 26.3\nsamples = 7\nvalue = 6.0"] ;
119 -> 120 ;
121 [label="meldtx <= 0.4\nmse = 4.4\nsamples = 6\nvalue = 4.7"] ;
120 -> 121 ;
122 [label="apcirugiaabdosuperior <= 0.5\nmse = 1.6\nsamples = 4\nvalue = 2.7"] ;
121 -> 122 ;
123 [label="tiempolistaespera <= 0.1\nmse = 0.2\nsamples = 2\nvalue = 3.5"] ;
122 -> 123 ;
124 [label="mse = 0.0\nsamples = 1\nvalue = 3.0"] ;
123 -> 124 ;
125 [label="mse = 0.0\nsamples = 1\nvalue = 4.0"] ;
123 -> 125 ;
126 [label="mse = 0.0\nsamples = 2\nvalue = 1.0"] ;
122 -> 126 ;
127 [label="ast <= 0.0\nmse = 0.2\nsamples = 2\nvalue = 6.4"] ;
121 -> 127 ;
128 [label="mse = 0.0\nsamples = 1\nvalue = 6.0"] ;
127 -> 128 ;
129 [label="mse = 0.0\nsamples = 1\nvalue = 7.0"] ;
127 -> 129 ;
130 [label="mse = 0.0\nsamples = 1\nvalue = 23.0"] ;
120 -> 130 ;
131 [label="bit <= 0.3\nmse = 22.2\nsamples = 2\nvalue = 23.3"] ;
119 -> 131 ;
132 [label="mse = 0.0\nsamples = 1\nvalue = 20.0"] ;
131 -> 132 ;
133 [label="mse = 0.0\nsamples = 1\nvalue = 30.0"] ;
131 -> 133 ;
134 [label="bmiestdon <= 0.5\nmse = 15797.0\nsamples = 24\nvalue = 130.8"] ;
116 -> 134 ;
135 [label="na <= 0.6\nmse = 6278.8\nsamples = 16\nvalue = 81.4"] ;
134 -> 135 ;
136 [label="tiempoisquemiafria <= 0.8\nmse = 3049.6\nsamples = 15\nvalue = 69.6"] ;
135 -> 136 ;
137 [label="creatinina <= 0.1\nmse = 2563.4\nsamples = 8\nvalue = 96.5"] ;
136 -> 137 ;
138 [label="age <= 0.3\nmse = 1387.1\nsamples = 4\nvalue = 62.7"] ;
137 -> 138 ;
139 [label="hipotension <= 0.5\nmse = 4.0\nsamples = 2\nvalue = 10.0"] ;
138 -> 139 ;
140 [label="mse = 0.0\nsamples = 1\nvalue = 12.0"] ;
139 -> 140 ;
141 [label="mse = 0.0\nsamples = 1\nvalue = 8.0"] ;
139 -> 141 ;
142 [label="ast <= 0.0\nmse = 384.2\nsamples = 2\nvalue = 83.8"] ;
138 -> 142 ;
143 [label="mse = 0.0\nsamples = 1\nvalue = 123.0"] ;
142 -> 143 ;
144 [label="mse = 0.0\nsamples = 1\nvalue = 74.0"] ;
142 -> 144 ;
145 [label="edaddon <= 0.1\nmse = 1456.8\nsamples = 4\nvalue = 130.3"] ;
137 -> 145 ;
146 [label="mse = 0.0\nsamples = 1\nvalue = 217.0"] ;
145 -> 146 ;
147 [label="creatinina <= 0.2\nmse = 237.5\nsamples = 3\nvalue = 115.8"] ;
145 -> 147 ;
148 [label="na <= 0.5\nmse = 10.2\nsamples = 2\nvalue = 122.6"] ;
147 -> 148 ;
149 [label="mse = 0.0\nsamples = 1\nvalue = 121.0"] ;
148 -> 149 ;
150 [label="mse = 0.0\nsamples = 1\nvalue = 129.0"] ;
148 -> 150 ;
151 [label="mse = 0.0\nsamples = 1\nvalue = 82.0"] ;
147 -> 151 ;
152 [label="htadon <= 0.5\nmse = 1295.9\nsamples = 7\nvalue = 31.9"] ;
136 -> 152 ;
153 [label="bit <= 0.1\nmse = 251.8\nsamples = 6\nvalue = 21.0"] ;
152 -> 153 ;
154 [label="alt <= 0.0\nmse = 35.2\nsamples = 3\nvalue = 37.2"] ;
153 -> 154 ;
155 [label="sfiptx <= 0.2\nmse = 0.2\nsamples = 2\nvalue = 40.7"] ;
154 -> 155 ;
156 [label="mse = 0.0\nsamples = 1\nvalue = 40.0"] ;
155 -> 156 ;
157 [label="mse = 0.0\nsamples = 1\nvalue = 41.0"] ;
155 -> 157 ;
158 [label="mse = 0.0\nsamples = 1\nvalue = 27.0"] ;
154 -> 158 ;
159 [label="inotropos <= 0.5\nmse = 44.8\nsamples = 3\nvalue = 8.0"] ;
153 -> 159 ;
160 [label="mse = 0.0\nsamples = 1\nvalue = 0.0"] ;
159 -> 160 ;
161 [label="injertocompletoparcial <= 0.5\nmse = 3.6\nsamples = 2\nvalue = 13.3"] ;
159 -> 161 ;
162 [label="mse = 0.0\nsamples = 1\nvalue = 16.0"] ;
161 -> 162 ;
163 [label="mse = 0.0\nsamples = 1\nvalue = 12.0"] ;
161 -> 163 ;
164 [label="mse = 0.0\nsamples = 1\nvalue = 130.0"] ;
152 -> 164 ;
165 [label="mse = 0.0\nsamples = 1\nvalue = 365.0"] ;
135 -> 165 ;
166 [label="age <= 0.5\nmse = 19943.9\nsamples = 8\nvalue = 233.8"] ;
134 -> 166 ;
167 [label="apcirugiaabdosuperior <= 0.5\nmse = 0.6\nsamples = 4\nvalue = 364.7"] ;
166 -> 167 ;
168 [label="mse = 0.0\nsamples = 3\nvalue = 365.0"] ;
167 -> 168 ;
169 [label="mse = 0.0\nsamples = 1\nvalue = 363.0"] ;
167 -> 169 ;
170 [label="tiempolistaespera <= 0.0\nmse = 5608.8\nsamples = 4\nvalue = 102.8"] ;
166 -> 170 ;
171 [label="injertocompletoparcial <= 0.5\nmse = 672.2\nsamples = 2\nvalue = 31.3"] ;
170 -> 171 ;
172 [label="mse = 0.0\nsamples = 1\nvalue = 13.0"] ;
171 -> 172 ;
173 [label="mse = 0.0\nsamples = 1\nvalue = 68.0"] ;
171 -> 173 ;
174 [label="inotropos <= 0.5\nmse = 320.9\nsamples = 2\nvalue = 174.3"] ;
170 -> 174 ;
175 [label="mse = 0.0\nsamples = 1\nvalue = 149.0"] ;
174 -> 175 ;
176 [label="mse = 0.0\nsamples = 1\nvalue = 187.0"] ;
174 -> 176 ;
177 [label="htadon <= 0.5\nmse = 17762.1\nsamples = 14\nvalue = 281.1"] ;
81 -> 177 ;
178 [label="tiempolistaespera <= 0.1\nmse = 12547.8\nsamples = 13\nvalue = 306.3"] ;
177 -> 178 ;
179 [label="creatinina <= 0.8\nmse = 6777.0\nsamples = 11\nvalue = 332.0"] ;
178 -> 179 ;
180 [label="tiempolistaespera <= 0.1\nmse = 515.7\nsamples = 10\nvalue = 351.2"] ;
179 -> 180 ;
181 [label="bit <= 0.1\nmse = 23.0\nsamples = 9\nvalue = 363.6"] ;
180 -> 181 ;
182 [label="mse = 0.0\nsamples = 1\nvalue = 347.0"] ;
181 -> 182 ;
183 [label="mse = 0.0\nsamples = 8\nvalue = 365.0"] ;
181 -> 183 ;
184 [label="mse = 0.0\nsamples = 1\nvalue = 311.0"] ;
180 -> 184 ;
185 [label="mse = 0.0\nsamples = 1\nvalue = 5.0"] ;
179 -> 185 ;
186 [label="etiologiaprincipal <= 0.3\nmse = 5041.0\nsamples = 2\nvalue = 75.0"] ;
178 -> 186 ;
187 [label="mse = 0.0\nsamples = 1\nvalue = 4.0"] ;
186 -> 187 ;
188 [label="mse = 0.0\nsamples = 1\nvalue = 146.0"] ;
186 -> 188 ;
189 [label="mse = 0.0\nsamples = 1\nvalue = 29.0"] ;
177 -> 189 ;
190 [label="txcombinado <= 0.5\nmse = 14365.2\nsamples = 23\nvalue = 299.8"] ;
80 -> 190 ;
191 [label="creatinina <= 0.1\nmse = 10572.9\nsamples = 21\nvalue = 314.3"] ;
190 -> 191 ;
192 [label="sfiptx <= 0.5\nmse = 4696.5\nsamples = 15\nvalue = 344.7"] ;
191 -> 192 ;
193 [label="tiempolistaespera <= 0.7\nmse = 1824.2\nsamples = 14\nvalue = 354.2"] ;
192 -> 193 ;
194 [label="mse = 0.0\nsamples = 13\nvalue = 365.0"] ;
193 -> 194 ;
195 [label="mse = 0.0\nsamples = 1\nvalue = 186.0"] ;
193 -> 195 ;
196 [label="mse = 0.0\nsamples = 1\nvalue = 34.0"] ;
192 -> 196 ;
197 [label="tiempoisquemiafria <= 0.8\nmse = 12750.5\nsamples = 6\nvalue = 166.4"] ;
191 -> 197 ;
198 [label="edaddon <= 0.8\nmse = 4819.8\nsamples = 4\nvalue = 227.4"] ;
197 -> 198 ;
199 [label="age <= 0.7\nmse = 108.0\nsamples = 3\nvalue = 193.0"] ;
198 -> 199 ;
200 [label="mse = 0.0\nsamples = 1\nvalue = 175.0"] ;
199 -> 200 ;
201 [label="mse = 0.0\nsamples = 2\nvalue = 199.0"] ;
199 -> 201 ;
202 [label="mse = 0.0\nsamples = 1\nvalue = 365.0"] ;
198 -> 202 ;
203 [label="htabasal <= 0.5\nmse = 49.0\nsamples = 2\nvalue = 14.0"] ;
197 -> 203 ;
204 [label="mse = 0.0\nsamples = 1\nvalue = 21.0"] ;
203 -> 204 ;
205 [label="mse = 0.0\nsamples = 1\nvalue = 7.0"] ;
203 -> 205 ;
206 [label="edaddon <= 0.6\nmse = 6.2\nsamples = 2\nvalue = 3.5"] ;
190 -> 206 ;
207 [label="mse = 0.0\nsamples = 1\nvalue = 6.0"] ;
206 -> 207 ;
208 [label="mse = 0.0\nsamples = 1\nvalue = 1.0"] ;
206 -> 208 ;
}