digraph Tree {
node [shape=box, style="rounded", color="black", fontname=helvetica] ;
edge [fontname=helvetica] ;
0 [label="bmi <= 0.4\nmse = 22547.6\nsamples = 135\nvalue = 162.6"] ;
1 [label="creatinine <= 0.3\nmse = 8235.9\nsamples = 44\nvalue = 74.7"] ;
0 -> 1 [labeldistance=2.5, labelangle=45, headlabel="True"] ;
2 [label="eti-0 <= 0.5\nmse = 5458.9\nsamples = 43\nvalue = 63.1"] ;
1 -> 2 ;
3 [label="bmi don <= 0.4\nmse = 3045.4\nsamples = 33\nvalue = 44.3"] ;
2 -> 3 ;
4 [label="bmi don <= 0.4\nmse = 4729.0\nsamples = 15\nvalue = 70.3"] ;
3 -> 4 ;
5 [label="alt <= 0.0\nmse = 2846.4\nsamples = 12\nvalue = 53.8"] ;
4 -> 5 ;
6 [label="pretx-2 <= 0.5\nmse = 372.6\nsamples = 5\nvalue = 21.4"] ;
5 -> 6 ;
7 [label="bit <= 0.2\nmse = 3.8\nsamples = 3\nvalue = 2.6"] ;
6 -> 7 ;
8 [label="mse = 0.0\nsamples = 1\nvalue = 5.0"] ;
7 -> 8 ;
9 [label="mse = 0.0\nsamples = 2\nvalue = 1.0"] ;
7 -> 9 ;
10 [label="ab0 <= 0.5\nmse = 34.6\nsamples = 2\nvalue = 40.2"] ;
6 -> 10 ;
11 [label="mse = 0.0\nsamples = 1\nvalue = 45.0"] ;
10 -> 11 ;
12 [label="mse = 0.0\nsamples = 1\nvalue = 33.0"] ;
10 -> 12 ;
13 [label="pretx-1 <= 0.5\nmse = 3220.6\nsamples = 7\nvalue = 86.2"] ;
5 -> 13 ;
14 [label="age don <= 0.2\nmse = 1766.0\nsamples = 4\nvalue = 123.0"] ;
13 -> 14 ;
15 [label="mse = 0.0\nsamples = 1\nvalue = 66.0"] ;
14 -> 15 ;
16 [label="na <= 0.2\nmse = 212.2\nsamples = 3\nvalue = 151.5"] ;
14 -> 16 ;
17 [label="mse = 0.0\nsamples = 1\nvalue = 137.0"] ;
16 -> 17 ;
18 [label="bit <= 0.1\nmse = 4.0\nsamples = 2\nvalue = 166.0"] ;
16 -> 18 ;
19 [label="mse = 0.0\nsamples = 1\nvalue = 164.0"] ;
18 -> 19 ;
20 [label="mse = 0.0\nsamples = 1\nvalue = 168.0"] ;
18 -> 20 ;
21 [label="age don <= 0.3\nmse = 324.0\nsamples = 3\nvalue = 31.0"] ;
13 -> 21 ;
22 [label="mse = 0.0\nsamples = 1\nvalue = 1.0"] ;
21 -> 22 ;
23 [label="waiting list time <= 0.1\nmse = 32.0\nsamples = 2\nvalue = 41.0"] ;
21 -> 23 ;
24 [label="mse = 0.0\nsamples = 1\nvalue = 33.0"] ;
23 -> 24 ;
25 [label="mse = 0.0\nsamples = 1\nvalue = 45.0"] ;
23 -> 25 ;
26 [label="tips <= 0.5\nmse = 3284.2\nsamples = 3\nvalue = 180.7"] ;
4 -> 26 ;
27 [label="gender <= 0.5\nmse = 441.0\nsamples = 2\nvalue = 142.0"] ;
26 -> 27 ;
28 [label="mse = 0.0\nsamples = 1\nvalue = 121.0"] ;
27 -> 28 ;
29 [label="mse = 0.0\nsamples = 1\nvalue = 163.0"] ;
27 -> 29 ;
30 [label="mse = 0.0\nsamples = 1\nvalue = 258.0"] ;
26 -> 30 ;
31 [label="creatinine <= 0.1\nmse = 921.7\nsamples = 18\nvalue = 25.0"] ;
3 -> 31 ;
32 [label="bit <= 0.5\nmse = 340.0\nsamples = 14\nvalue = 16.6"] ;
31 -> 32 ;
33 [label="waiting list time <= 0.0\nmse = 129.1\nsamples = 13\nvalue = 12.2"] ;
32 -> 33 ;
34 [label="age don <= 0.4\nmse = 33.0\nsamples = 3\nvalue = 32.0"] ;
33 -> 34 ;
35 [label="mse = 0.0\nsamples = 1\nvalue = 41.0"] ;
34 -> 35 ;
36 [label="bmi <= 0.3\nmse = 8.0\nsamples = 2\nvalue = 29.0"] ;
34 -> 36 ;
37 [label="mse = 0.0\nsamples = 1\nvalue = 27.0"] ;
36 -> 37 ;
38 [label="mse = 0.0\nsamples = 1\nvalue = 33.0"] ;
36 -> 38 ;
39 [label="na <= 0.3\nmse = 49.2\nsamples = 10\nvalue = 8.0"] ;
33 -> 39 ;
40 [label="cit6-12 <= 0.5\nmse = 10.7\nsamples = 3\nvalue = 20.2"] ;
39 -> 40 ;
41 [label="na <= 0.3\nmse = 2.0\nsamples = 2\nvalue = 22.0"] ;
40 -> 41 ;
42 [label="mse = 0.0\nsamples = 1\nvalue = 20.0"] ;
41 -> 42 ;
43 [label="mse = 0.0\nsamples = 1\nvalue = 23.0"] ;
41 -> 43 ;
44 [label="mse = 0.0\nsamples = 1\nvalue = 15.0"] ;
40 -> 44 ;
45 [label="death-4 <= 0.5\nmse = 8.7\nsamples = 7\nvalue = 4.7"] ;
39 -> 45 ;
46 [label="age don <= 0.6\nmse = 2.9\nsamples = 6\nvalue = 3.2"] ;
45 -> 46 ;
47 [label="creatinine <= 0.1\nmse = 0.2\nsamples = 3\nvalue = 4.4"] ;
46 -> 47 ;
48 [label="mse = 0.0\nsamples = 1\nvalue = 5.0"] ;
47 -> 48 ;
49 [label="mse = 0.0\nsamples = 2\nvalue = 4.0"] ;
47 -> 49 ;
50 [label="mse = 0.0\nsamples = 3\nvalue = 1.0"] ;
46 -> 50 ;
51 [label="mse = 0.0\nsamples = 1\nvalue = 9.0"] ;
45 -> 51 ;
52 [label="mse = 0.0\nsamples = 1\nvalue = 67.0"] ;
32 -> 52 ;
53 [label="ast <= 0.0\nmse = 1800.2\nsamples = 4\nvalue = 60.3"] ;
31 -> 53 ;
54 [label="mse = 0.0\nsamples = 1\nvalue = 144.0"] ;
53 -> 54 ;
55 [label="meld tx <= 0.4\nmse = 480.2\nsamples = 3\nvalue = 43.6"] ;
53 -> 55 ;
56 [label="mse = 0.0\nsamples = 1\nvalue = 4.0"] ;
55 -> 56 ;
57 [label="bmi don <= 0.5\nmse = 110.2\nsamples = 2\nvalue = 53.5"] ;
55 -> 57 ;
58 [label="mse = 0.0\nsamples = 1\nvalue = 64.0"] ;
57 -> 58 ;
59 [label="mse = 0.0\nsamples = 1\nvalue = 43.0"] ;
57 -> 59 ;
60 [label="death-1 <= 0.5\nmse = 7964.7\nsamples = 10\nvalue = 140.9"] ;
2 -> 60 ;
61 [label="cit6-12 <= 0.5\nmse = 4476.8\nsamples = 4\nvalue = 238.5"] ;
60 -> 61 ;
62 [label="mse = 0.0\nsamples = 1\nvalue = 351.0"] ;
61 -> 62 ;
63 [label="waiting list time <= 0.0\nmse = 344.0\nsamples = 3\nvalue = 201.0"] ;
61 -> 63 ;
64 [label="mse = 0.0\nsamples = 1\nvalue = 227.0"] ;
63 -> 64 ;
65 [label="meld tx <= 0.3\nmse = 9.0\nsamples = 2\nvalue = 188.0"] ;
63 -> 65 ;
66 [label="mse = 0.0\nsamples = 1\nvalue = 185.0"] ;
65 -> 66 ;
67 [label="mse = 0.0\nsamples = 1\nvalue = 191.0"] ;
65 -> 67 ;
68 [label="meld inclusion <= 0.3\nmse = 3402.5\nsamples = 6\nvalue = 97.6"] ;
60 -> 68 ;
69 [label="diabetes <= 0.5\nmse = 1282.8\nsamples = 3\nvalue = 142.0"] ;
68 -> 69 ;
70 [label="tips <= 0.5\nmse = 533.6\nsamples = 2\nvalue = 167.3"] ;
69 -> 70 ;
71 [label="mse = 0.0\nsamples = 1\nvalue = 151.0"] ;
70 -> 71 ;
72 [label="mse = 0.0\nsamples = 1\nvalue = 200.0"] ;
70 -> 72 ;
73 [label="mse = 0.0\nsamples = 1\nvalue = 104.0"] ;
69 -> 73 ;
74 [label="icu days <= 0.2\nmse = 496.5\nsamples = 3\nvalue = 42.0"] ;
68 -> 74 ;
75 [label="hta <= 0.5\nmse = 25.0\nsamples = 2\nvalue = 20.0"] ;
74 -> 75 ;
76 [label="mse = 0.0\nsamples = 1\nvalue = 15.0"] ;
75 -> 76 ;
77 [label="mse = 0.0\nsamples = 1\nvalue = 25.0"] ;
75 -> 77 ;
78 [label="mse = 0.0\nsamples = 1\nvalue = 64.0"] ;
74 -> 78 ;
79 [label="mse = 0.0\nsamples = 1\nvalue = 334.0"] ;
1 -> 79 ;
80 [label="waiting list time <= 0.2\nmse = 23939.1\nsamples = 91\nvalue = 203.8"] ;
0 -> 80 [labeldistance=2.5, labelangle=-45, headlabel="False"] ;
81 [label="ast <= 0.1\nmse = 22568.6\nsamples = 68\nvalue = 164.9"] ;
80 -> 81 ;
82 [label="meld tx <= 0.3\nmse = 19366.0\nsamples = 54\nvalue = 134.5"] ;
81 -> 82 ;
83 [label="waiting list time <= 0.1\nmse = 20911.3\nsamples = 20\nvalue = 216.3"] ;
82 -> 83 ;
84 [label="na <= 0.4\nmse = 14257.3\nsamples = 16\nvalue = 261.0"] ;
83 -> 84 ;
85 [label="na <= 0.3\nmse = 3308.8\nsamples = 8\nvalue = 326.1"] ;
84 -> 85 ;
86 [label="cmv <= 0.5\nmse = 3005.8\nsamples = 4\nvalue = 274.2"] ;
85 -> 86 ;
87 [label="hepatorhenal sndrome <= 0.5\nmse = 854.2\nsamples = 2\nvalue = 323.7"] ;
86 -> 87 ;
88 [label="mse = 0.0\nsamples = 1\nvalue = 303.0"] ;
87 -> 88 ;
89 [label="mse = 0.0\nsamples = 1\nvalue = 365.0"] ;
87 -> 89 ;
90 [label="hta <= 0.5\nmse = 256.9\nsamples = 2\nvalue = 224.7"] ;
86 -> 90 ;
91 [label="mse = 0.0\nsamples = 1\nvalue = 236.0"] ;
90 -> 91 ;
92 [label="mse = 0.0\nsamples = 1\nvalue = 202.0"] ;
90 -> 92 ;
93 [label="mse = 0.0\nsamples = 4\nvalue = 365.0"] ;
85 -> 93 ;
94 [label="na <= 0.6\nmse = 14455.7\nsamples = 8\nvalue = 159.8"] ;
84 -> 94 ;
95 [label="alt <= 0.0\nmse = 8011.2\nsamples = 6\nvalue = 92.5"] ;
94 -> 95 ;
96 [label="age <= 0.8\nmse = 1794.2\nsamples = 5\nvalue = 56.4"] ;
95 -> 96 ;
97 [label="icu days <= 0.1\nmse = 44.2\nsamples = 3\nvalue = 90.7"] ;
96 -> 97 ;
98 [label="mse = 0.0\nsamples = 1\nvalue = 100.0"] ;
97 -> 98 ;
99 [label="age <= 0.7\nmse = 1.0\nsamples = 2\nvalue = 86.0"] ;
97 -> 99 ;
100 [label="mse = 0.0\nsamples = 1\nvalue = 85.0"] ;
99 -> 100 ;
101 [label="mse = 0.0\nsamples = 1\nvalue = 87.0"] ;
99 -> 101 ;
102 [label="bmi don <= 0.4\nmse = 16.0\nsamples = 2\nvalue = 5.0"] ;
96 -> 102 ;
103 [label="mse = 0.0\nsamples = 1\nvalue = 1.0"] ;
102 -> 103 ;
104 [label="mse = 0.0\nsamples = 1\nvalue = 9.0"] ;
102 -> 104 ;
105 [label="mse = 0.0\nsamples = 1\nvalue = 273.0"] ;
95 -> 105 ;
106 [label="ast <= 0.0\nmse = 186.9\nsamples = 2\nvalue = 294.3"] ;
94 -> 106 ;
107 [label="mse = 0.0\nsamples = 1\nvalue = 275.0"] ;
106 -> 107 ;
108 [label="mse = 0.0\nsamples = 1\nvalue = 304.0"] ;
106 -> 108 ;
109 [label="meld tx <= 0.1\nmse = 16.2\nsamples = 4\nvalue = 10.6"] ;
83 -> 109 ;
110 [label="mse = 0.0\nsamples = 1\nvalue = 3.0"] ;
109 -> 110 ;
111 [label="multiorganic <= 0.5\nmse = 2.2\nsamples = 3\nvalue = 12.5"] ;
109 -> 111 ;
112 [label="eti1 <= 0.5\nmse = 0.2\nsamples = 2\nvalue = 13.3"] ;
111 -> 112 ;
113 [label="mse = 0.0\nsamples = 1\nvalue = 14.0"] ;
112 -> 113 ;
114 [label="mse = 0.0\nsamples = 1\nvalue = 13.0"] ;
112 -> 114 ;
115 [label="mse = 0.0\nsamples = 1\nvalue = 10.0"] ;
111 -> 115 ;
116 [label="death-0 <= 0.5\nmse = 13573.7\nsamples = 34\nvalue = 93.6"] ;
82 -> 116 ;
117 [label="bit <= 0.2\nmse = 7807.8\nsamples = 22\nvalue = 55.3"] ;
116 -> 117 ;
118 [label="age <= 0.1\nmse = 5212.8\nsamples = 21\nvalue = 46.5"] ;
117 -> 118 ;
119 [label="mse = 0.0\nsamples = 1\nvalue = 365.0"] ;
118 -> 119 ;
120 [label="alt <= 0.0\nmse = 2294.5\nsamples = 20\nvalue = 37.1"] ;
118 -> 120 ;
121 [label="eti-3 <= 0.5\nmse = 2074.5\nsamples = 4\nvalue = 94.6"] ;
120 -> 121 ;
122 [label="cit>12 <= 0.5\nmse = 256.0\nsamples = 2\nvalue = 24.0"] ;
121 -> 122 ;
123 [label="mse = 0.0\nsamples = 1\nvalue = 8.0"] ;
122 -> 123 ;
124 [label="mse = 0.0\nsamples = 1\nvalue = 40.0"] ;
122 -> 124 ;
125 [label="cit6-12 <= 0.5\nmse = 13.0\nsamples = 2\nvalue = 122.8"] ;
121 -> 125 ;
126 [label="mse = 0.0\nsamples = 1\nvalue = 130.0"] ;
125 -> 126 ;
127 [label="mse = 0.0\nsamples = 1\nvalue = 121.0"] ;
125 -> 127 ;
128 [label="eti-6 <= 0.5\nmse = 1273.8\nsamples = 16\nvalue = 22.2"] ;
120 -> 128 ;
129 [label="bmi don <= 0.2\nmse = 680.8\nsamples = 15\nvalue = 17.3"] ;
128 -> 129 ;
130 [label="mse = 0.0\nsamples = 1\nvalue = 123.0"] ;
129 -> 130 ;
131 [label="bmi <= 0.5\nmse = 243.7\nsamples = 14\nvalue = 13.1"] ;
129 -> 131 ;
132 [label="alt <= 0.0\nmse = 162.0\nsamples = 2\nvalue = 50.0"] ;
131 -> 132 ;
133 [label="mse = 0.0\nsamples = 1\nvalue = 41.0"] ;
132 -> 133 ;
134 [label="mse = 0.0\nsamples = 1\nvalue = 68.0"] ;
132 -> 134 ;
135 [label="death-2 <= 0.5\nmse = 44.1\nsamples = 12\nvalue = 8.1"] ;
131 -> 135 ;
136 [label="meld tx <= 0.6\nmse = 20.3\nsamples = 10\nvalue = 6.1"] ;
135 -> 136 ;
137 [label="gender don <= 0.5\nmse = 6.3\nsamples = 7\nvalue = 4.1"] ;
136 -> 137 ;
138 [label="waiting list time <= 0.1\nmse = 2.5\nsamples = 5\nvalue = 2.0"] ;
137 -> 138 ;
139 [label="eti-5 <= 0.5\nmse = 0.2\nsamples = 3\nvalue = 0.5"] ;
138 -> 139 ;
140 [label="mse = 0.0\nsamples = 2\nvalue = 1.0"] ;
139 -> 140 ;
141 [label="mse = 0.0\nsamples = 1\nvalue = 0.0"] ;
139 -> 141 ;
142 [label="eti-0 <= 0.5\nmse = 0.2\nsamples = 2\nvalue = 3.5"] ;
138 -> 142 ;
143 [label="mse = 0.0\nsamples = 1\nvalue = 3.0"] ;
142 -> 143 ;
144 [label="mse = 0.0\nsamples = 1\nvalue = 4.0"] ;
142 -> 144 ;
145 [label="meld inclusion <= 0.4\nmse = 0.2\nsamples = 2\nvalue = 6.4"] ;
137 -> 145 ;
146 [label="mse = 0.0\nsamples = 1\nvalue = 7.0"] ;
145 -> 146 ;
147 [label="mse = 0.0\nsamples = 1\nvalue = 6.0"] ;
145 -> 147 ;
148 [label="na <= 0.2\nmse = 2.2\nsamples = 3\nvalue = 13.5"] ;
136 -> 148 ;
149 [label="mse = 0.0\nsamples = 1\nvalue = 16.0"] ;
148 -> 149 ;
150 [label="cit>12 <= 0.5\nmse = 0.2\nsamples = 2\nvalue = 12.7"] ;
148 -> 150 ;
151 [label="mse = 0.0\nsamples = 1\nvalue = 12.0"] ;
150 -> 151 ;
152 [label="mse = 0.0\nsamples = 1\nvalue = 13.0"] ;
150 -> 152 ;
153 [label="bit <= 0.1\nmse = 2.0\nsamples = 2\nvalue = 21.0"] ;
135 -> 153 ;
154 [label="mse = 0.0\nsamples = 1\nvalue = 23.0"] ;
153 -> 154 ;
155 [label="mse = 0.0\nsamples = 1\nvalue = 20.0"] ;
153 -> 155 ;
156 [label="mse = 0.0\nsamples = 1\nvalue = 149.0"] ;
128 -> 156 ;
157 [label="mse = 0.0\nsamples = 1\nvalue = 365.0"] ;
117 -> 157 ;
158 [label="bmi don <= 0.5\nmse = 16583.2\nsamples = 12\nvalue = 162.4"] ;
116 -> 158 ;
159 [label="na <= 0.3\nmse = 3063.6\nsamples = 7\nvalue = 85.1"] ;
158 -> 159 ;
160 [label="alt <= 0.0\nmse = 1963.6\nsamples = 2\nvalue = 154.3"] ;
159 -> 160 ;
161 [label="mse = 0.0\nsamples = 1\nvalue = 123.0"] ;
160 -> 161 ;
162 [label="mse = 0.0\nsamples = 1\nvalue = 217.0"] ;
160 -> 162 ;
163 [label="cit>12 <= 0.5\nmse = 1298.9\nsamples = 5\nvalue = 62.0"] ;
159 -> 163 ;
164 [label="bmi don <= 0.3\nmse = 404.6\nsamples = 3\nvalue = 84.5"] ;
163 -> 164 ;
165 [label="waiting list time <= 0.0\nmse = 10.2\nsamples = 2\nvalue = 75.6"] ;
164 -> 165 ;
166 [label="mse = 0.0\nsamples = 1\nvalue = 74.0"] ;
165 -> 166 ;
167 [label="mse = 0.0\nsamples = 1\nvalue = 82.0"] ;
165 -> 167 ;
168 [label="mse = 0.0\nsamples = 1\nvalue = 129.0"] ;
164 -> 168 ;
169 [label="meld inclusion <= 0.4\nmse = 50.0\nsamples = 2\nvalue = 17.0"] ;
163 -> 169 ;
170 [label="mse = 0.0\nsamples = 1\nvalue = 12.0"] ;
169 -> 170 ;
171 [label="mse = 0.0\nsamples = 1\nvalue = 27.0"] ;
169 -> 171 ;
172 [label="meld tx <= 0.4\nmse = 14445.7\nsamples = 5\nvalue = 278.4"] ;
158 -> 172 ;
173 [label="bmi don <= 0.5\nmse = 5477.6\nsamples = 2\nvalue = 134.7"] ;
172 -> 173 ;
174 [label="mse = 0.0\nsamples = 1\nvalue = 30.0"] ;
173 -> 174 ;
175 [label="mse = 0.0\nsamples = 1\nvalue = 187.0"] ;
173 -> 175 ;
176 [label="pretx-3 <= 0.5\nmse = 0.6\nsamples = 3\nvalue = 364.6"] ;
172 -> 176 ;
177 [label="mse = 0.0\nsamples = 1\nvalue = 363.0"] ;
176 -> 177 ;
178 [label="mse = 0.0\nsamples = 2\nvalue = 365.0"] ;
176 -> 178 ;
179 [label="hta don <= 0.5\nmse = 17762.1\nsamples = 14\nvalue = 281.1"] ;
81 -> 179 ;
180 [label="meld inclusion <= 0.1\nmse = 12547.8\nsamples = 13\nvalue = 306.3"] ;
179 -> 180 ;
181 [label="eti-0 <= 0.5\nmse = 5041.0\nsamples = 2\nvalue = 75.0"] ;
180 -> 181 ;
182 [label="mse = 0.0\nsamples = 1\nvalue = 146.0"] ;
181 -> 182 ;
183 [label="mse = 0.0\nsamples = 1\nvalue = 4.0"] ;
181 -> 183 ;
184 [label="creatinine <= 0.8\nmse = 6777.0\nsamples = 11\nvalue = 332.0"] ;
180 -> 184 ;
185 [label="icu days <= 0.3\nmse = 515.7\nsamples = 10\nvalue = 351.2"] ;
184 -> 185 ;
186 [label="diabetes <= 0.5\nmse = 23.0\nsamples = 9\nvalue = 363.6"] ;
185 -> 186 ;
187 [label="mse = 0.0\nsamples = 8\nvalue = 365.0"] ;
186 -> 187 ;
188 [label="mse = 0.0\nsamples = 1\nvalue = 347.0"] ;
186 -> 188 ;
189 [label="mse = 0.0\nsamples = 1\nvalue = 311.0"] ;
185 -> 189 ;
190 [label="mse = 0.0\nsamples = 1\nvalue = 5.0"] ;
184 -> 190 ;
191 [label="mse = 0.0\nsamples = 1\nvalue = 29.0"] ;
179 -> 191 ;
192 [label="combined tx <= 0.5\nmse = 14365.2\nsamples = 23\nvalue = 299.8"] ;
80 -> 192 ;
193 [label="creatinine <= 0.1\nmse = 10572.9\nsamples = 21\nvalue = 314.3"] ;
192 -> 193 ;
194 [label="pretx-2 <= 0.5\nmse = 4696.5\nsamples = 15\nvalue = 344.7"] ;
193 -> 194 ;
195 [label="waiting list time <= 0.7\nmse = 1824.2\nsamples = 14\nvalue = 354.2"] ;
194 -> 195 ;
196 [label="mse = 0.0\nsamples = 13\nvalue = 365.0"] ;
195 -> 196 ;
197 [label="mse = 0.0\nsamples = 1\nvalue = 186.0"] ;
195 -> 197 ;
198 [label="mse = 0.0\nsamples = 1\nvalue = 34.0"] ;
194 -> 198 ;
199 [label="meld tx <= 0.2\nmse = 12750.5\nsamples = 6\nvalue = 166.4"] ;
193 -> 199 ;
200 [label="hipetension <= 0.5\nmse = 49.0\nsamples = 2\nvalue = 14.0"] ;
199 -> 200 ;
201 [label="mse = 0.0\nsamples = 1\nvalue = 7.0"] ;
200 -> 201 ;
202 [label="mse = 0.0\nsamples = 1\nvalue = 21.0"] ;
200 -> 202 ;
203 [label="eti1 <= 0.5\nmse = 4819.8\nsamples = 4\nvalue = 227.4"] ;
199 -> 203 ;
204 [label="bmi don <= 0.5\nmse = 108.0\nsamples = 3\nvalue = 193.0"] ;
203 -> 204 ;
205 [label="mse = 0.0\nsamples = 2\nvalue = 199.0"] ;
204 -> 205 ;
206 [label="mse = 0.0\nsamples = 1\nvalue = 175.0"] ;
204 -> 206 ;
207 [label="mse = 0.0\nsamples = 1\nvalue = 365.0"] ;
203 -> 207 ;
208 [label="age don <= 0.6\nmse = 6.2\nsamples = 2\nvalue = 3.5"] ;
192 -> 208 ;
209 [label="mse = 0.0\nsamples = 1\nvalue = 6.0"] ;
208 -> 209 ;
210 [label="mse = 0.0\nsamples = 1\nvalue = 1.0"] ;
208 -> 210 ;
}